{"weights": [0.009048188097319155, 0.005212307195240569, -0.0053528982125305, 0.02002918888280477, -0.005438368520708031, -0.009574758885402023, 0.006147347814512911, -0.009319224366369519, 0.01241423980299628, -0.003118283208705789, -0.007923413359037344, -0.004593637621614441, 0.026032305725134198, -0.0015622987607607532, 0.0035085180325199463, 0.013760659455947837, -0.005687591078585333, -0.009091017785344766, -0.016301624654483284, 0.001863786820475351, -0.012094027876577618, -0.018428367291631272, 0.01101832586791913, 0.0108064341933018, 0.007918580237564744, 0.0030770527453108432, -0.005663829280311369, 0.0062414000559367095, 0.007161109806290337, 0.02216247004684857, -0.0008588066422075159, 0.004671933959248196, 0.010563574839190366, 0.005033134423027738, 0.014523223146461057, -0.004111194861837733, -0.015127396047810226, -0.02026639228645066, 0.021013785996543837, 0.003627432492806878, -0.002043108034772376, 0.005911461304417138, -0.00313784928976906, 0.005954090293343987, -0.009549649499695195, 0.005758258168737867, -0.0021682706409671647, -0.014047921156238579, 0.006512132416674577, 0.02434506821788879, 0.005706021976859438, 0.016055202138110507, 0.009796683472705348, -0.0051568029052919875, -0.002965354343962422, 0.00636665787107344, -0.005239092898008029, 0.0052941590171358185, 0.018134813367437937, -0.005748338505040253, -0.011340500712929176, 0.004003144188820718, 0.006625975731143219, -0.025104380294586757, 0.007270395131323418, 0.0017277285461865816, -0.003749225694781097, 0.01650898334993345, -0.008536595723941526, 0.004441086923166626, 0.0034167914385967797, -0.0015777706824577102, 0.010848208570249637, -0.003955194727923962, -0.023438174742918063, -0.01006520816016032, 0.00116473248187097, -0.01858467053293916, -0.010955434288742173, -0.0015285388073026916, -0.007334184164644442, 0.0090133241603148, -0.005255351564944624, -0.005811378943792317, -0.006730216899331642, -0.010976030007386034, -0.006011297800429631, 0.009469758869776065, 0.005849963129985862, 0.006917201800814923, -0.0036936180786242565, 0.007122610740360941, -0.014755599790109212, -0.004349636460025384, -0.004623716640479942, -0.016370695733820766, 0.002327332332901954, -0.017505168718486015, 0.0016353718677177206, 0.0013732830209172246, 0.007773404963596269, -0.009038439836291755, -2.789003557218364e-05, 0.005677392033964372, 0.023298972711507538, 0.01290444370810158, -0.0019123186905379973, 0.0006525449739765686, 0.001243569518623217, 0.0005532636274821102, -0.01136103736047638, -0.00038128454107760825, -0.005288526885056781, 0.0025991695894264904, 0.007654409802346982, 0.010983584334079253, 0.007530079402840993, -0.005052864819908656, 0.012649618866948781, -0.013782403151225657, -0.004448910811663389, 0.012612565418236174, -0.005368390164041292, 0.000658805999231164, 0.007094392835478224, 0.003048971324618835, 0.004347896532520226, 0.013740712166370598, 0.01584234212532187, -0.007311914842553271, -0.0034798204020964688, -0.002125937985275572, 0.023063513498716454, 0.007110708868677032, -0.0024565327338780404, 2.0641676392535712e-05, 0.01733106335325723, -0.006489171536167025, -0.0009366155567792439, -0.014499309138565415, 0.003757536820308377, 0.01942403880350307, -0.013758393740354908, -0.006540908052738171, -0.009368142888572175, -0.012649523178788343, -0.005336200117471775, 0.011346584147351452, -0.003229292960186613, 0.013740678799209868, 0.0067382161343815805, 0.004768843414962785, 0.0024981185813648284, -0.005593674377666354, 0.012058126110759883, -0.009656456999917991, 0.001292793889547487, -0.0004222068165403309, 0.006457625908900542, 0.021773074788051863, -0.024046828584953356, 0.004713742799475758, -0.003745076013937989, -0.020571628919187093, 0.005954759864939223, 0.009133898994504463, 0.008170597710874887, -0.008063969425551272, 0.017894574625557224, 0.001649959542288035, 0.00658161557119425, 0.015048516171736534, 0.004441000434510544, -0.0006719730460501111, 0.01447688636191314, 0.014075673591975143, -0.0032998099103702166, 0.005197020117460083, 0.008748165588445283, -0.006754780540023972, -0.014222615478063994, 0.006799538543671716, 0.0021873936669690465, 0.002041975768937617, -0.0036404951316787197, 0.017359815443856053, -0.00275596375647057, -0.003515088332262224, -0.0013573760233113752, 0.008379955919002192, 0.0025442293338949116, -0.008658012098063205, 0.02192177384348885, -0.01703796292549483, 0.011351913147742055, -0.00968414723018483, 0.0020678024864495886, -0.006957935140479077, -0.008082779066545445, -0.006348752328803087, 0.005242629198502194, 0.004732218426039952, -0.012859218049068404, -0.0034567065868588228, -0.024781399262244083, 0.016062131934792688, -0.002585872187580356, -0.02144166661642098, 0.014040670350203467, -0.004200599257408582, 0.017228314045474792, -0.004563170170218478, 0.0009996706571593563, 0.014395449122773006, -0.009217879060933933, -0.01408089057240218, -0.0074293236398125535, 0.001802280920777739, -0.006960898991590237, -0.0004458906682270972, 0.0029058335583900287, -0.004142024875213408, -0.023393641598324362, -4.004963008849249e-06, 0.002124719534156924, -0.012442049883034687, -0.006401518276335261, -0.003932867326663031, -0.01349637064795531, 0.01733881781196547, -0.005584966762984291, 0.0016363239785540105, 0.004888962580974017, 0.006359281511842136, 0.007324163883570306, 0.002842416897158677, 0.008606677288454405, -0.0026848408649846676, 0.006058502719961272, -3.472626714895904e-05, -0.0060567900155306205, -0.003732301585029723, -0.011756461514148237, 0.005952674423492276, -0.02399638845832066, 0.012878018037774516, -0.01625556006974739, 0.004023354896913996, 0.016834594960986243, -0.0013024620384376397, 0.002664931775973602, 0.009266635554016812, 0.011459125981404255, 0.01057287631164584, 0.0010736938657241442, -0.007403386597577021], "bias": -0.02742866801664004, "learning_rate": 0.001, "num_iterations": 100}